{
	"conv1.0.weight": [
		[
			5,
			1,
			5,
			5
		],
		[
			[
				[
					[
						-0.01994682475924492,
						-0.08287019282579422,
						0.10288923978805542,
						-0.27354323863983154,
						0.16493065655231476
					],
					[
						-0.08827603608369827,
						-0.07668209820985794,
						-0.07969613373279572,
						-0.04337437078356743,
						0.27979156374931335
					],
					[
						0.11761204153299332,
						0.3184735178947449,
						0.104103684425354,
						-0.03595173358917236,
						0.23946383595466614
					],
					[
						0.1600879281759262,
						0.25527700781822205,
						0.008842231705784798,
						0.09450745582580566,
						0.1583206057548523
					],
					[
						-0.2203415036201477,
						-0.24522440135478973,
						-0.2785685658454895,
						0.037750665098428726,
						0.344876766204834
					]
				]
			],
			[
				[
					[
						-0.02862825058400631,
						0.040363579988479614,
						0.07922051846981049,
						-0.06329573690891266,
						-0.280626118183136
					],
					[
						-0.20208479464054108,
						0.2624707520008087,
						0.33340582251548767,
						0.5632597208023071,
						0.3060081899166107
					],
					[
						0.022982394322752953,
						-0.23509617149829865,
						-0.19602839648723602,
						0.3143361210823059,
						0.5232789516448975
					],
					[
						-0.00844811461865902,
						0.020194467157125473,
						-0.24547183513641357,
						-0.0028214033227413893,
						-0.14283335208892822
					],
					[
						-0.19959254562854767,
						0.13545431196689606,
						-0.2402440756559372,
						-0.5033479928970337,
						-0.262204110622406
					]
				]
			],
			[
				[
					[
						0.03225841373205185,
						-0.10766393691301346,
						-0.2697889804840088,
						-0.027425745502114296,
						0.14741848409175873
					],
					[
						-0.17143090069293976,
						-0.25621771812438965,
						-0.099196657538414,
						0.08132732659578323,
						0.18236401677131653
					],
					[
						-0.24014553427696228,
						-0.3306853175163269,
						-0.13706320524215698,
						0.43631765246391296,
						0.09801612049341202
					],
					[
						-0.11192363500595093,
						0.09486676752567291,
						0.17225073277950287,
						0.3972509801387787,
						0.0067078787833452225
					],
					[
						0.04317586123943329,
						0.13705937564373016,
						0.2835626006126404,
						-0.012763012200593948,
						-0.20903590321540833
					]
				]
			],
			[
				[
					[
						0.09156062453985214,
						0.3496852219104767,
						-0.340257853269577,
						-0.430753231048584,
						-0.1937226951122284
					],
					[
						0.1597895622253418,
						0.5138009786605835,
						-0.11153210699558258,
						0.010087254457175732,
						-0.09452169388532639
					],
					[
						-0.29259008169174194,
						0.36714017391204834,
						0.18737365305423737,
						-0.01950296200811863,
						0.009981860406696796
					],
					[
						-0.28138983249664307,
						0.13269956409931183,
						0.25660157203674316,
						0.09450297057628632,
						-0.05864449217915535
					],
					[
						-0.025350673124194145,
						0.18907707929611206,
						-0.003751404583454132,
						0.36463335156440735,
						0.05012068897485733
					]
				]
			],
			[
				[
					[
						-0.10485155135393143,
						0.0909363180398941,
						-0.001828523469157517,
						0.1818711757659912,
						0.1437128633260727
					],
					[
						-0.10809801518917084,
						0.009265662170946598,
						0.2790937125682831,
						0.18450233340263367,
						0.19203707575798035
					],
					[
						-0.06626910716295242,
						-0.16696105897426605,
						0.19057458639144897,
						0.11920824646949768,
						-0.12783466279506683
					],
					[
						-0.05571497231721878,
						-0.20170512795448303,
						-0.22340668737888336,
						0.030541665852069855,
						-0.19486476480960846
					],
					[
						-0.08675167709589005,
						-0.1861119568347931,
						-0.5103747248649597,
						-0.38837143778800964,
						-0.08151872456073761
					]
				]
			]
		]
	],
	"conv1.0.bias": [
		[
			5
		],
		[
			0.04836481437087059,
			-0.24669764935970306,
			0.18726421892642975,
			-0.08219921588897705,
			0.6460517048835754
		]
	],
	"conv2.0.weight": [
		[
			50,
			5,
			5,
			5
		],
		[
			[
				[
					[
						0.20454196631908417,
						-0.14263848960399628,
						0.12415329366922379,
						0.17399784922599792,
						-0.05611255392432213
					],
					[
						-0.001934619969688356,
						-0.220415860414505,
						0.10777934640645981,
						-0.013412964530289173,
						-0.053144026547670364
					],
					[
						-0.04274085536599159,
						-0.20259830355644226,
						0.07141944766044617,
						-0.2127746343612671,
						-0.07553160935640335
					],
					[
						-0.3081052601337433,
						-0.2535722255706787,
						0.04633870720863342,
						0.06921710073947906,
						-0.007957002148032188
					],
					[
						-0.3197449743747711,
						-0.1543075144290924,
						0.00746731273829937,
						0.1382569521665573,
						0.25725093483924866
					]
				],
				[
					[
						0.23492665588855743,
						0.0997447744011879,
						-0.24835573136806488,
						-0.2340874969959259,
						-0.18615642189979553
					],
					[
						0.12409407645463943,
						0.15617439150810242,
						0.004502603318542242,
						-0.16706392168998718,
						-0.007937237620353699
					],
					[
						-0.08630872517824173,
						0.061324603855609894,
						0.23174092173576355,
						-0.2514171004295349,
						-0.15655526518821716
					],
					[
						0.010519753210246563,
						0.11770114302635193,
						0.09689918905496597,
						0.0949760153889656,
						0.22239087522029877
					],
					[
						0.02356480434536934,
						0.0023973218630999327,
						0.15864284336566925,
						0.1259167194366455,
						0.053967807441949844
					]
				],
				[
					[
						0.07186984270811081,
						-0.2754845917224884,
						-0.07008938491344452,
						0.2165585607290268,
						-0.10374429076910019
					],
					[
						0.2171476185321808,
						-0.24203072488307953,
						0.01755610480904579,
						0.23664648830890656,
						-0.11711719632148743
					],
					[
						0.03683501482009888,
						-0.23349454998970032,
						0.04099644720554352,
						0.0920506939291954,
						-0.05076880007982254
					],
					[
						0.04808641970157623,
						-0.07730741053819656,
						-0.0009338350500911474,
						0.16665339469909668,
						-0.07220350950956345
					],
					[
						0.0329257994890213,
						-0.06605899333953857,
						0.16122843325138092,
						0.21120065450668335,
						-0.20735374093055725
					]
				],
				[
					[
						0.14666201174259186,
						0.36582711338996887,
						-0.07274393737316132,
						-0.02879849448800087,
						0.039425771683454514
					],
					[
						0.22031442821025848,
						0.14072582125663757,
						-0.3804221749305725,
						-0.20997656881809235,
						-0.1149882823228836
					],
					[
						0.14976194500923157,
						-0.20423465967178345,
						-0.2578929662704468,
						-0.1550416201353073,
						-0.040986135601997375
					],
					[
						-0.05385109782218933,
						-0.08371620625257492,
						-0.0916968286037445,
						-0.1826465129852295,
						-0.0682908371090889
					],
					[
						-0.1559046506881714,
						-0.1244916021823883,
						-0.23642082512378693,
						-0.036939773708581924,
						-0.09414168447256088
					]
				],
				[
					[
						-0.26117923855781555,
						0.02826046198606491,
						0.16109226644039154,
						0.1348332166671753,
						0.19534052908420563
					],
					[
						0.004067601170390844,
						-0.005192512180656195,
						0.20716172456741333,
						0.025316696614027023,
						0.06660493463277817
					],
					[
						0.13327312469482422,
						0.23285046219825745,
						0.014489060267806053,
						0.13743489980697632,
						-0.16410323977470398
					],
					[
						0.036591239273548126,
						0.12452303618192673,
						0.18891872465610504,
						0.05312366038560867,
						-0.04344892129302025
					],
					[
						0.09561092406511307,
						0.11353392899036407,
						0.4217091202735901,
						0.20733168721199036,
						0.07056120783090591
					]
				]
			],
			[
				[
					[
						-0.02203468419611454,
						-0.027816973626613617,
						-0.1451289802789688,
						-0.130547434091568,
						-0.15399955213069916
					],
					[
						0.16364310681819916,
						0.23689837753772736,
						-0.0045451996847987175,
						-0.05950125679373741,
						0.06428436934947968
					],
					[
						-0.0634177178144455,
						0.12874555587768555,
						0.21498703956604004,
						0.06645781546831131,
						0.03383404016494751
					],
					[
						-0.051073070615530014,
						0.038154374808073044,
						0.014682607725262642,
						0.116780586540699,
						0.3740823566913605
					],
					[
						-0.1625438779592514,
						-0.1735343635082245,
						-0.09063466638326645,
						0.058305297046899796,
						0.43607547879219055
					]
				],
				[
					[
						0.1830947995185852,
						0.08774445950984955,
						0.12719492614269257,
						-0.043815016746520996,
						0.1817564070224762
					],
					[
						-0.03463572636246681,
						0.017753135412931442,
						0.06074269860982895,
						0.14695580303668976,
						-0.02068779058754444
					],
					[
						0.01635511964559555,
						0.059506628662347794,
						-0.05857690051198006,
						-0.024045489728450775,
						0.2979716360569
					],
					[
						-0.29390087723731995,
						-0.32503700256347656,
						-0.2009941041469574,
						0.04166709631681442,
						0.06454137712717056
					],
					[
						-0.2525204122066498,
						-0.11778872460126877,
						-0.28418728709220886,
						-0.4342566728591919,
						-0.16238512098789215
					]
				],
				[
					[
						0.01722789742052555,
						-0.07699400931596756,
						-0.11694026738405228,
						-0.08999591320753098,
						-0.2170269787311554
					],
					[
						-0.10938131809234619,
						0.07760360091924667,
						-0.06911829113960266,
						0.058143697679042816,
						-0.13042868673801422
					],
					[
						-0.10651354491710663,
						0.2018072009086609,
						0.11362476646900177,
						0.163137748837471,
						0.3360685408115387
					],
					[
						0.09547733515501022,
						-0.04623693600296974,
						0.054617732763290405,
						0.24291303753852844,
						0.4025750756263733
					],
					[
						-0.05577598512172699,
						-0.01874687522649765,
						0.04584498703479767,
						-0.08830168098211288,
						0.12874151766300201
					]
				],
				[
					[
						0.2786785364151001,
						-0.026397597044706345,
						0.04721938073635101,
						0.07079364359378815,
						-0.2393314391374588
					],
					[
						0.1714739352464676,
						0.18616905808448792,
						0.1872435212135315,
						0.10782326757907867,
						-0.0462656207382679
					],
					[
						0.016545705497264862,
						0.11473675072193146,
						0.10413143038749695,
						0.09936453402042389,
						-0.11093854904174805
					],
					[
						0.010318501852452755,
						0.011159686371684074,
						-0.06723012775182724,
						0.14830555021762848,
						0.4306739270687103
					],
					[
						0.024778081104159355,
						-0.27302125096321106,
						-0.12978805601596832,
						-0.019565295428037643,
						-0.09923956543207169
					]
				],
				[
					[
						-0.16598184406757355,
						-0.17498965561389923,
						-0.14020514488220215,
						-0.23882947862148285,
						-0.08619002997875214
					],
					[
						0.023624444380402565,
						-0.1177462786436081,
						-0.09086550772190094,
						-0.33088356256484985,
						-0.3763907849788666
					],
					[
						0.08628581464290619,
						0.15823720395565033,
						-0.2253677099943161,
						-0.208039790391922,
						0.01099767442792654
					],
					[
						-0.14993587136268616,
						-0.07127050310373306,
						0.25286227464675903,
						0.21667055785655975,
						-0.05057883262634277
					],
					[
						-0.0849509984254837,
						-0.08022890239953995,
						-0.29674258828163147,
						-0.15911129117012024,
						0.04098675772547722
					]
				]
			],
			[
				[
					[
						-0.025444384664297104,
						0.20221135020256042,
						0.07461336255073547,
						-0.10775603353977203,
						0.09025140851736069
					],
					[
						0.009590205736458302,
						0.21215638518333435,
						0.02028532326221466,
						-0.022043850272893906,
						-0.061486534774303436
					],
					[
						-0.026773279532790184,
						-0.078884057700634,
						-0.13975898921489716,
						0.1010177806019783,
						0.0656745433807373
					],
					[
						0.16291455924510956,
						-0.0034668981097638607,
						0.01530743483453989,
						-0.027259059250354767,
						-0.03774541988968849
					],
					[
						0.2626901865005493,
						-0.057768482714891434,
						-0.18873105943202972,
						-0.008691512979567051,
						-0.009374242275953293
					]
				],
				[
					[
						0.002449121093377471,
						-0.1359916627407074,
						0.13047750294208527,
						0.320088654756546,
						0.03770217299461365
					],
					[
						0.16154558956623077,
						-0.2625919282436371,
						0.0390641987323761,
						0.21386466920375824,
						-0.018348805606365204
					],
					[
						0.24008022248744965,
						0.26575028896331787,
						0.09375808387994766,
						0.198144793510437,
						-0.08859294652938843
					],
					[
						0.0005853133043274283,
						-0.08113750070333481,
						0.12260568141937256,
						-0.00811090413480997,
						-0.07910212874412537
					],
					[
						-0.08530591428279877,
						0.08055087178945541,
						0.010483934544026852,
						-0.12760983407497406,
						0.01574978046119213
					]
				],
				[
					[
						-0.1001158133149147,
						0.2434457242488861,
						0.13028061389923096,
						-0.1451042890548706,
						-0.12713725864887238
					],
					[
						-0.0022358286660164595,
						0.13212357461452484,
						0.15263691544532776,
						-0.14125625789165497,
						-0.15223774313926697
					],
					[
						0.04884642735123634,
						0.06973358243703842,
						0.15164726972579956,
						-0.0537230521440506,
						-0.23520024120807648
					],
					[
						0.23269447684288025,
						0.2760946452617645,
						-0.09320323169231415,
						-0.22160924971103668,
						-0.24113363027572632
					],
					[
						0.07169315218925476,
						-0.15390533208847046,
						-0.02598966285586357,
						-0.1813874989748001,
						-0.19071002304553986
					]
				],
				[
					[
						-0.04355626180768013,
						-0.1062382236123085,
						0.1445254236459732,
						0.24820126593112946,
						-0.12709318101406097
					],
					[
						-0.28413155674934387,
						-0.09556572884321213,
						0.011203334666788578,
						0.17255936563014984,
						-0.07283852249383926
					],
					[
						-0.1581707000732422,
						-0.13908398151397705,
						-0.2647302448749542,
						0.04221614822745323,
						0.08394470810890198
					],
					[
						-0.04999396204948425,
						-0.17327150702476501,
						-0.3155268728733063,
						0.13446010649204254,
						-0.037785451859235764
					],
					[
						-0.3855111002922058,
						-0.37283855676651,
						0.04364164173603058,
						0.06907807290554047,
						0.07499798387289047
					]
				],
				[
					[
						-0.21156607568264008,
						0.10962608456611633,
						0.150486558675766,
						-0.03004860319197178,
						0.10966929793357849
					],
					[
						0.1422160565853119,
						0.08471391350030899,
						0.23325581848621368,
						0.13034504652023315,
						0.21320803463459015
					],
					[
						0.18265777826309204,
						0.11510179936885834,
						0.06192762032151222,
						0.20716384053230286,
						-0.07685866951942444
					],
					[
						-0.22641605138778687,
						0.014796970412135124,
						0.04089845344424248,
						-0.06493796408176422,
						-0.05178501456975937
					],
					[
						0.08000975102186203,
						-0.09959174692630768,
						-0.38062769174575806,
						-0.17833220958709717,
						-0.090180903673172
					]
				]
			],
			[
				[
					[
						-0.11042046546936035,
						-0.08834443986415863,
						-0.07249298691749573,
						-0.17043887078762054,
						0.19590815901756287
					],
					[
						-0.2597128748893738,
						0.18646875023841858,
						0.354454904794693,
						-0.24829965829849243,
						0.22420229017734528
					],
					[
						-0.48625946044921875,
						0.2451990246772766,
						0.21878865361213684,
						-0.27871173620224,
						0.09643048048019409
					],
					[
						-0.29363906383514404,
						0.2982841730117798,
						0.12560874223709106,
						0.0023489901795983315,
						0.2626965045928955
					],
					[
						-0.33921000361442566,
						-0.15194480121135712,
						0.08455417305231094,
						0.14271551370620728,
						0.38723644614219666
					]
				],
				[
					[
						0.010563339106738567,
						-0.13497726619243622,
						-0.20114724338054657,
						0.015873756259679794,
						0.12328284233808517
					],
					[
						0.162330761551857,
						-0.25166580080986023,
						0.07413846999406815,
						-0.034528810530900955,
						-0.018402401357889175
					],
					[
						0.19801834225654602,
						0.10080668330192566,
						-0.2574389576911926,
						0.06622187793254852,
						-0.09245428442955017
					],
					[
						0.03146840259432793,
						-0.042427908629179,
						-0.2553847134113312,
						0.10126758366823196,
						0.22105775773525238
					],
					[
						0.14966683089733124,
						-0.243300199508667,
						-0.11062303930521011,
						0.14864712953567505,
						-0.10541106760501862
					]
				],
				[
					[
						-0.03899674490094185,
						-0.026672828942537308,
						-0.15658873319625854,
						0.045904263854026794,
						-0.06219426915049553
					],
					[
						-0.11808791756629944,
						-0.42235541343688965,
						0.05178385227918625,
						0.09064281731843948,
						-0.06818906217813492
					],
					[
						0.035718612372875214,
						-0.5001563429832458,
						0.20597240328788757,
						-0.062144022434949875,
						-0.04434322193264961
					],
					[
						-0.19272592663764954,
						0.1159321516752243,
						0.22189609706401825,
						-0.2469015121459961,
						-0.04412906616926193
					],
					[
						-0.16756601631641388,
						-0.018622078001499176,
						-0.07634060829877853,
						-0.33446741104125977,
						0.2894246578216553
					]
				],
				[
					[
						-0.12696342170238495,
						0.13961859047412872,
						-0.17122504115104675,
						0.2615277171134949,
						-0.08343718945980072
					],
					[
						-0.05049189552664757,
						0.03093363717198372,
						0.2113085389137268,
						0.18637359142303467,
						0.032022956758737564
					],
					[
						0.03585495427250862,
						-0.07297340780496597,
						0.22857485711574554,
						0.13585393130779266,
						-0.06976144015789032
					],
					[
						0.24466140568256378,
						-0.05494280159473419,
						-0.16333994269371033,
						0.3235718011856079,
						0.04127945005893707
					],
					[
						-0.11871876567602158,
						-0.45221105217933655,
						-0.16499502956867218,
						0.4473135769367218,
						-0.014940202236175537
					]
				],
				[
					[
						0.2432592660188675,
						0.13752296566963196,
						0.13474972546100616,
						0.011618411168456078,
						-0.14865541458129883
					],
					[
						0.06789284199476242,
						-0.005050641484558582,
						-0.020549003034830093,
						-0.22256684303283691,
						-0.07911410182714462
					],
					[
						-0.020815398544073105,
						0.10273127257823944,
						0.19491373002529144,
						-0.24374492466449738,
						-0.2684001326560974
					],
					[
						-0.1794806271791458,
						-0.07471738010644913,
						0.2748901844024658,
						-0.23036660254001617,
						-0.08593934774398804
					],
					[
						-0.10432961583137512,
						-0.04721306636929512,
						0.21071892976760864,
						0.05616189166903496,
						0.08135837316513062
					]
				]
			],
			[
				[
					[
						-0.1729140430688858,
						0.03142394870519638,
						-0.12367558479309082,
						0.04522097110748291,
						0.025719888508319855
					],
					[
						-0.072609543800354,
						-0.18139520287513733,
						0.13022243976593018,
						0.17613764107227325,
						0.05422165244817734
					],
					[
						-0.06937538832426071,
						-0.09990311414003372,
						-0.13154231011867523,
						-0.08411632478237152,
						0.054358188062906265
					],
					[
						-0.05962138995528221,
						0.2536124587059021,
						0.1868254691362381,
						0.03113495372235775,
						0.09666368365287781
					],
					[
						-0.18312320113182068,
						0.12783250212669373,
						0.3918486535549164,
						0.22250717878341675,
						0.09764000028371811
					]
				],
				[
					[
						-0.1348237544298172,
						0.051132723689079285,
						0.2585776746273041,
						-0.05963684618473053,
						-0.021508341655135155
					],
					[
						0.09521964192390442,
						-0.0715361163020134,
						-0.16031251847743988,
						-0.017602261155843735,
						0.09136199206113815
					],
					[
						-0.029867105185985565,
						-0.18416264653205872,
						0.008116465993225574,
						0.20146499574184418,
						-0.13331811130046844
					],
					[
						0.07459460198879242,
						0.10445047169923782,
						0.049851030111312866,
						0.29902154207229614,
						0.21186953783035278
					],
					[
						0.1814766675233841,
						0.0961088240146637,
						-0.06283478438854218,
						-0.07492645829916,
						0.1483795940876007
					]
				],
				[
					[
						-0.2759275436401367,
						-0.13092100620269775,
						-0.12300623953342438,
						-0.05438246577978134,
						-0.04520619288086891
					],
					[
						-0.35458904504776,
						-0.22748222947120667,
						-0.1995522379875183,
						-0.15387718379497528,
						0.07405555248260498
					],
					[
						-0.14528867602348328,
						-0.2778467833995819,
						-0.19678032398223877,
						-0.3737865090370178,
						0.2070305049419403
					],
					[
						-0.06293408572673798,
						-0.08778620511293411,
						-0.07653273642063141,
						0.25355130434036255,
						0.23101681470870972
					],
					[
						-0.09436021745204926,
						0.06620173156261444,
						0.03478962928056717,
						0.2346791923046112,
						0.25470590591430664
					]
				],
				[
					[
						-0.027073753997683525,
						0.1408718377351761,
						-0.02181299217045307,
						0.07996277511119843,
						0.0547550730407238
					],
					[
						0.17453745007514954,
						0.32805076241493225,
						-0.0659886971116066,
						0.12413963675498962,
						0.040167126804590225
					],
					[
						0.19067181646823883,
						0.227833092212677,
						0.11027342826128006,
						0.17929117381572723,
						0.074906125664711
					],
					[
						-0.02784264087677002,
						0.06985042989253998,
						0.2335641235113144,
						0.2113623023033142,
						0.17838522791862488
					],
					[
						0.0017686724895611405,
						-0.09941760450601578,
						0.13526463508605957,
						0.23866114020347595,
						0.1835242509841919
					]
				],
				[
					[
						0.1942899227142334,
						-0.1262279450893402,
						0.11022540181875229,
						-0.01709854230284691,
						-0.09326052665710449
					],
					[
						-0.015960318967700005,
						0.4231529235839844,
						0.09379543364048004,
						-0.06204685568809509,
						-0.2803618013858795
					],
					[
						0.050130754709243774,
						-0.07044622302055359,
						-0.19035913050174713,
						-0.08313532918691635,
						-0.13156503438949585
					],
					[
						-0.18919487297534943,
						-0.4836459457874298,
						-0.14955605566501617,
						-0.187495619058609,
						-0.23220448195934296
					],
					[
						0.1368095874786377,
						0.02557973936200142,
						-0.03556875139474869,
						0.04358905926346779,
						-0.11010044068098068
					]
				]
			],
			[
				[
					[
						-0.09443365037441254,
						0.18343836069107056,
						-0.014236541464924812,
						0.13195841014385223,
						0.1542515605688095
					],
					[
						-0.07745211571455002,
						-0.0960739478468895,
						-0.15759164094924927,
						-0.20497317612171173,
						-0.14584456384181976
					],
					[
						-0.20220527052879333,
						-0.3827238380908966,
						-0.09147288650274277,
						-0.13438084721565247,
						0.035991888493299484
					],
					[
						0.08521206676959991,
						-0.16741003096103668,
						0.04733499512076378,
						0.16521267592906952,
						0.02090156078338623
					],
					[
						0.03700639680027962,
						-0.03601096197962761,
						0.09729579091072083,
						0.049248773604631424,
						0.07439924031496048
					]
				],
				[
					[
						-0.16154783964157104,
						-0.04133938252925873,
						-0.3148948848247528,
						-0.17275598645210266,
						-0.24426937103271484
					],
					[
						-0.03507504239678383,
						-0.16466037929058075,
						-0.2936362028121948,
						-0.23959417641162872,
						-0.07465615123510361
					],
					[
						0.3983672261238098,
						0.06534604728221893,
						0.2472449094057083,
						0.23233427107334137,
						0.18604552745819092
					],
					[
						0.18211345374584198,
						0.19152072072029114,
						-0.020829057320952415,
						-0.058995261788368225,
						0.17400193214416504
					],
					[
						-0.27854177355766296,
						-0.09887965768575668,
						0.06353964656591415,
						-0.07005969434976578,
						-0.12052743136882782
					]
				],
				[
					[
						0.053125325590372086,
						-0.01848572865128517,
						0.1504552811384201,
						0.04611162468791008,
						0.20291732251644135
					],
					[
						-0.040266696363687515,
						-0.017086446285247803,
						-0.20253048837184906,
						-0.17065869271755219,
						-0.1176685243844986
					],
					[
						-0.09852035343647003,
						-0.18322330713272095,
						-0.12318432331085205,
						-0.10990455001592636,
						0.18984656035900116
					],
					[
						-0.11394240707159042,
						0.10110500454902649,
						0.11056958138942719,
						0.07181968539953232,
						0.17395512759685516
					],
					[
						0.03726254031062126,
						-0.02742805890738964,
						-0.10639899969100952,
						-0.009515102952718735,
						0.3399128317832947
					]
				],
				[
					[
						-0.13980595767498016,
						-0.0207237396389246,
						0.18359406292438507,
						0.18810415267944336,
						-0.05269797146320343
					],
					[
						-0.08210494369268417,
						-0.023376313969492912,
						-0.08291974663734436,
						-0.13247212767601013,
						-0.20439490675926208
					],
					[
						-0.04784024879336357,
						-0.08103629946708679,
						0.05078115314245224,
						0.08138804137706757,
						-0.10410791635513306
					],
					[
						0.17449268698692322,
						-0.028624897822737694,
						-0.010124380700290203,
						0.07684970647096634,
						0.28021693229675293
					],
					[
						-0.1148109883069992,
						-0.03219456970691681,
						-0.22765924036502838,
						0.0548061728477478,
						0.06192399561405182
					]
				],
				[
					[
						-0.02357165887951851,
						0.061086636036634445,
						0.004722893703728914,
						-0.0358365997672081,
						0.0432143397629261
					],
					[
						0.38396525382995605,
						0.2630402743816376,
						0.3287351429462433,
						0.007609926164150238,
						0.04117298126220703
					],
					[
						0.17784720659255981,
						0.10981401801109314,
						-0.006906433962285519,
						-0.14947113394737244,
						-0.08445505052804947
					],
					[
						0.020692747086286545,
						-0.0497320219874382,
						-0.20685812830924988,
						0.18281958997249603,
						-0.0066091264598071575
					],
					[
						-0.17434266209602356,
						-0.3213770091533661,
						0.19691941142082214,
						-0.029491623863577843,
						-0.10037440806627274
					]
				]
			],
			[
				[
					[
						0.09265895187854767,
						0.2713053822517395,
						-0.05305717885494232,
						0.026406705379486084,
						0.07278206944465637
					],
					[
						-0.034768782556056976,
						0.13218660652637482,
						0.07446619868278503,
						0.0675143152475357,
						0.17010502517223358
					],
					[
						0.016393281519412994,
						-0.11972993612289429,
						-0.1855909526348114,
						-0.015681104734539986,
						0.15737846493721008
					],
					[
						0.11240506917238235,
						-0.02738145738840103,
						0.05127383768558502,
						0.12379172444343567,
						0.14397291839122772
					],
					[
						0.11135469377040863,
						0.18075872957706451,
						0.2022487074136734,
						-0.10693951696157455,
						0.03847236558794975
					]
				],
				[
					[
						0.057362839579582214,
						-0.027355926111340523,
						-0.06966798007488251,
						0.006784067023545504,
						-0.12015242129564285
					],
					[
						-0.15625932812690735,
						0.22068075835704803,
						0.036848679184913635,
						-0.015478434041142464,
						0.24078452587127686
					],
					[
						-0.1553429812192917,
						0.001241204678080976,
						0.18186914920806885,
						-0.021798137575387955,
						0.037097230553627014
					],
					[
						0.16678421199321747,
						0.0014461178798228502,
						0.05951547622680664,
						-0.1626823991537094,
						-0.06608908623456955
					],
					[
						-0.07984016835689545,
						-0.1644352525472641,
						-0.21849267184734344,
						-0.08154552429914474,
						-0.04617757350206375
					]
				],
				[
					[
						-0.24828152358531952,
						-0.17088449001312256,
						0.11759750545024872,
						0.14496541023254395,
						0.28093892335891724
					],
					[
						0.03839033097028732,
						-0.022241733968257904,
						-0.5266123414039612,
						-0.2191600203514099,
						-0.08550918102264404
					],
					[
						-0.16962769627571106,
						-0.14712664484977722,
						-0.29209932684898376,
						-0.20990873873233795,
						0.15091097354888916
					],
					[
						0.3193228840827942,
						0.21944472193717957,
						0.03795768320560455,
						-0.04012710973620415,
						-0.2746853530406952
					],
					[
						0.20891641080379486,
						0.2812182605266571,
						-0.3299810588359833,
						0.020146023482084274,
						0.2652614414691925
					]
				],
				[
					[
						0.023521944880485535,
						0.23117831349372864,
						-0.11220388859510422,
						-0.32337692379951477,
						-0.04176127538084984
					],
					[
						0.2534327507019043,
						0.3272138833999634,
						0.1235269159078598,
						0.36542072892189026,
						-0.275411456823349
					],
					[
						-0.12349885702133179,
						0.08047705888748169,
						0.2954643666744232,
						0.32693442702293396,
						0.24955753982067108
					],
					[
						-0.05402778834104538,
						-0.23648208379745483,
						-0.10698039084672928,
						0.1459111124277115,
						0.2871266007423401
					],
					[
						0.11026255786418915,
						-0.21646441519260406,
						0.03377319127321243,
						-0.17537297308444977,
						-0.08068732917308807
					]
				],
				[
					[
						0.07688575237989426,
						-0.2452855259180069,
						-0.11804269254207611,
						-0.30846840143203735,
						0.06204712763428688
					],
					[
						0.09796451777219772,
						0.04665641486644745,
						0.20384883880615234,
						0.06672218441963196,
						0.20428159832954407
					],
					[
						0.04181935638189316,
						0.05125901848077774,
						0.02491864562034607,
						0.2557407319545746,
						-0.08876361697912216
					],
					[
						-0.13785657286643982,
						-0.04783989489078522,
						0.02764771319925785,
						5.7712430134415627e-05,
						0.07143126428127289
					],
					[
						-0.08689387142658234,
						-0.21832305192947388,
						-0.3010178804397583,
						-0.26236361265182495,
						0.02635931596159935
					]
				]
			],
			[
				[
					[
						0.026229605078697205,
						0.08824432641267776,
						-0.0111959557980299,
						0.09458570182323456,
						0.15895897150039673
					],
					[
						-0.004673907533288002,
						-0.10688350349664688,
						0.06776770949363708,
						-0.11712527275085449,
						-0.04259875416755676
					],
					[
						-0.008291264995932579,
						-0.0077071962878108025,
						-0.059223249554634094,
						-0.10311806946992874,
						-0.04970585182309151
					],
					[
						-0.12953102588653564,
						-0.25780704617500305,
						-0.2996232807636261,
						0.05387481674551964,
						0.06511041522026062
					],
					[
						-0.3156539499759674,
						-0.30167245864868164,
						-0.3215586245059967,
						-0.005563164129853249,
						-0.004411296918988228
					]
				],
				[
					[
						0.013701318763196468,
						-0.11467887461185455,
						0.02020135521888733,
						-0.05473973974585533,
						-0.10610291361808777
					],
					[
						-0.06794016063213348,
						-0.010489764623343945,
						-0.22260621190071106,
						-0.3480074107646942,
						-0.3584492802619934
					],
					[
						0.16361969709396362,
						0.12524709105491638,
						-0.20570310950279236,
						-0.01912846788764,
						-0.03505062311887741
					],
					[
						0.20602433383464813,
						0.007307179272174835,
						-0.054318394511938095,
						0.08294632285833359,
						0.048769090324640274
					],
					[
						-0.09433875232934952,
						-0.1846495270729065,
						0.2568843960762024,
						0.296205997467041,
						0.09130752086639404
					]
				],
				[
					[
						-0.004093966446816921,
						-0.034488290548324585,
						-0.061561983078718185,
						-0.12976810336112976,
						0.21643266081809998
					],
					[
						-0.09493163228034973,
						-0.06278250366449356,
						-0.10140929371118546,
						0.1324164718389511,
						0.21302561461925507
					],
					[
						-0.14894281327724457,
						-0.2293570190668106,
						-0.15798123180866241,
						-0.05087173357605934,
						-0.07589621096849442
					],
					[
						-0.017064061015844345,
						0.03976200893521309,
						-0.015711849555373192,
						-0.08075878769159317,
						-0.21712440252304077
					],
					[
						0.08017300069332123,
						0.10158082842826843,
						0.0281412061303854,
						-0.1130511537194252,
						-0.10619518160820007
					]
				],
				[
					[
						-0.10920168459415436,
						0.02199266478419304,
						0.10325372219085693,
						0.14563988149166107,
						0.17152132093906403
					],
					[
						-0.10786041617393494,
						0.1932365745306015,
						-0.05433540418744087,
						-0.00491645373404026,
						-0.09288446605205536
					],
					[
						-0.14973023533821106,
						0.0032882990781217813,
						0.09317310899496078,
						-0.122947558760643,
						-0.23590858280658722
					],
					[
						-0.015323566272854805,
						0.04096993803977966,
						-0.07049467414617538,
						0.053953759372234344,
						-0.13668496906757355
					],
					[
						-0.05681567266583443,
						-0.3572370409965515,
						-0.15916800498962402,
						0.05035288631916046,
						0.3012703061103821
					]
				],
				[
					[
						-0.06838411837816238,
						-0.11460787802934647,
						0.033995047211647034,
						0.39253470301628113,
						0.08807279169559479
					],
					[
						-0.05501295253634453,
						0.13755103945732117,
						0.02621905319392681,
						0.038931965827941895,
						0.38039377331733704
					],
					[
						0.09689914435148239,
						0.28775131702423096,
						-0.046064965426921844,
						-0.005001014098525047,
						0.10712864249944687
					],
					[
						0.31331607699394226,
						0.1283075213432312,
						0.1112130880355835,
						0.005458040162920952,
						-0.11170466989278793
					],
					[
						-0.0492720827460289,
						-0.21885283291339874,
						0.27234259247779846,
						0.008143290877342224,
						0.03101670928299427
					]
				]
			],
			[
				[
					[
						-0.054481394588947296,
						-0.21910469233989716,
						-0.2891436517238617,
						-0.22344976663589478,
						0.06072051823139191
					],
					[
						-0.07052835077047348,
						0.01306744571775198,
						-0.09008048474788666,
						-0.06396936625242233,
						-0.11102834343910217
					],
					[
						-0.12472724169492722,
						0.14321835339069366,
						0.01891574077308178,
						-0.06134263053536415,
						0.1437678337097168
					],
					[
						0.05638662353157997,
						-0.063467837870121,
						0.23233617842197418,
						0.04970284923911095,
						0.19796782732009888
					],
					[
						-0.26581740379333496,
						-0.20644353330135345,
						0.024222277104854584,
						0.1971219927072525,
						0.17050133645534515
					]
				],
				[
					[
						-0.3282828629016876,
						-0.07488653063774109,
						0.1190725788474083,
						-0.016576187685132027,
						-0.06553778797388077
					],
					[
						-0.15092845261096954,
						0.10137136280536652,
						0.08923746645450592,
						0.1200781911611557,
						0.12216562032699585
					],
					[
						0.10111982375383377,
						0.020393643528223038,
						0.01954413391649723,
						0.18367013335227966,
						0.12918086349964142
					],
					[
						0.15533192455768585,
						-0.27650368213653564,
						-0.05676290765404701,
						0.09920158982276917,
						0.019039129838347435
					],
					[
						0.2014889419078827,
						0.018224477767944336,
						0.32871028780937195,
						0.21840400993824005,
						0.13035331666469574
					]
				],
				[
					[
						-0.041492216289043427,
						-0.23816968500614166,
						-0.3852542042732239,
						-0.2616385519504547,
						-0.1506936103105545
					],
					[
						-0.05418449267745018,
						-0.08613431453704834,
						-0.05918298661708832,
						0.204104483127594,
						-0.01290737371891737
					],
					[
						-0.16396541893482208,
						0.09803712368011475,
						0.261238157749176,
						0.18764588236808777,
						-0.0070893606171011925
					],
					[
						0.06545370817184448,
						-0.23302282392978668,
						0.06697281450033188,
						0.13623766601085663,
						0.07379467785358429
					],
					[
						-0.2683938443660736,
						-0.3528231978416443,
						0.07679204642772675,
						-0.01591270975768566,
						0.16060546040534973
					]
				],
				[
					[
						0.08653336018323898,
						0.266282856464386,
						0.306367427110672,
						0.136931374669075,
						-0.11988873779773712
					],
					[
						-0.04216010868549347,
						0.09456983953714371,
						0.03329751268029213,
						-0.05190073698759079,
						0.14858375489711761
					],
					[
						-0.10856353491544724,
						0.019231483340263367,
						0.016853978857398033,
						0.08732007443904877,
						-0.013250206597149372
					],
					[
						-0.12504738569259644,
						-0.19816753268241882,
						0.13774935901165009,
						0.08966320753097534,
						0.1812056601047516
					],
					[
						0.13578760623931885,
						-0.14246442914009094,
						-0.1548309028148651,
						0.24619239568710327,
						-0.02778187394142151
					]
				],
				[
					[
						0.05424928665161133,
						0.09459339827299118,
						0.07522249966859818,
						-0.21795538067817688,
						0.019839854910969734
					],
					[
						-0.2522630989551544,
						-0.20693467557430267,
						0.03325415402650833,
						-0.061374835669994354,
						-0.17274783551692963
					],
					[
						0.10127385705709457,
						0.15982626378536224,
						-0.2727414071559906,
						0.015626922249794006,
						0.030996331945061684
					],
					[
						-0.02143762819468975,
						0.252431184053421,
						-0.03683165833353996,
						0.21351054310798645,
						-0.14465662837028503
					],
					[
						0.1845700442790985,
						-0.003977315500378609,
						0.1664373278617859,
						0.04631678760051727,
						-0.06571251899003983
					]
				]
			],
			[
				[
					[
						-0.18640506267547607,
						0.17102329432964325,
						-0.0657239481806755,
						-0.03447207063436508,
						-0.08127498626708984
					],
					[
						0.0965999886393547,
						-0.09099295735359192,
						-0.03845551237463951,
						-0.2028709203004837,
						-0.24207788705825806
					],
					[
						0.06803585588932037,
						0.05059120059013367,
						-0.005003121215850115,
						-0.03973804786801338,
						-0.18316468596458435
					],
					[
						0.2526700496673584,
						-0.07746525853872299,
						-0.13430218398571014,
						0.037901971489191055,
						0.13976602256298065
					],
					[
						0.11725050956010818,
						0.06352319568395615,
						0.31736937165260315,
						-0.07593347132205963,
						0.2351551055908203
					]
				],
				[
					[
						0.06392470002174377,
						0.11690662801265717,
						-0.09237115830183029,
						-0.019751986488699913,
						-0.02573809027671814
					],
					[
						-0.17336364090442657,
						0.12848670780658722,
						0.11401908844709396,
						0.019834427163004875,
						-0.23274686932563782
					],
					[
						0.01365238893777132,
						0.02668769657611847,
						-0.3364619016647339,
						-0.025974702090024948,
						0.10243861377239227
					],
					[
						-0.0347825326025486,
						-0.3443288207054138,
						-0.08776398748159409,
						0.15320627391338348,
						0.1936173439025879
					],
					[
						0.13313280045986176,
						0.26326653361320496,
						0.30569225549697876,
						0.2357613444328308,
						0.15511298179626465
					]
				],
				[
					[
						0.33185985684394836,
						-0.235426127910614,
						-0.015271099284291267,
						0.22018681466579437,
						0.0017035789787769318
					],
					[
						-0.04513273388147354,
						-0.060506243258714676,
						0.166657492518425,
						0.3378700613975525,
						0.22068199515342712
					],
					[
						-0.10497692227363586,
						0.23032908141613007,
						0.21984462440013885,
						0.07776991277933121,
						0.1283605694770813
					],
					[
						0.29970601201057434,
						0.23611633479595184,
						-0.09069180488586426,
						0.1033623218536377,
						-0.269189715385437
					],
					[
						-0.11458712816238403,
						-0.12406394630670547,
						-0.1276538223028183,
						-0.12121918797492981,
						-0.048972275108098984
					]
				],
				[
					[
						-0.038924913853406906,
						-0.08891402930021286,
						-0.0249232966452837,
						-0.03517792746424675,
						0.10395519435405731
					],
					[
						0.13174013793468475,
						0.03330801799893379,
						-0.006078475154936314,
						-0.2440546303987503,
						-0.05566101521253586
					],
					[
						-0.01926453225314617,
						0.08402355760335922,
						-0.03431038558483124,
						-0.06296657770872116,
						-0.032764896750450134
					],
					[
						0.12038861215114594,
						-0.18104107677936554,
						-0.05515093728899956,
						-0.06877778470516205,
						0.14399802684783936
					],
					[
						0.15654771029949188,
						0.16327470541000366,
						0.1352948397397995,
						0.16786760091781616,
						0.17613668739795685
					]
				],
				[
					[
						0.07421617954969406,
						0.010777363553643227,
						-0.07818517088890076,
						-0.09120379388332367,
						0.023871401324868202
					],
					[
						0.11610613763332367,
						-0.05899154767394066,
						-0.06487134099006653,
						0.09264624118804932,
						-0.1115596741437912
					],
					[
						-0.22724929451942444,
						-0.17158611118793488,
						-0.2445521503686905,
						-0.051833625882864,
						0.02986673265695572
					],
					[
						-0.07764312624931335,
						-0.27563637495040894,
						-0.2900361120700836,
						-0.06746984273195267,
						-0.02357618324458599
					],
					[
						0.0837494432926178,
						0.09132987260818481,
						-0.033946018666028976,
						0.009893214330077171,
						0.13021220266819
					]
				]
			],
			[
				[
					[
						-0.026868784800171852,
						-0.02219836413860321,
						0.0939798355102539,
						0.2033686637878418,
						0.1227092370390892
					],
					[
						-0.024047929793596268,
						0.09304063022136688,
						-0.0033363723196089268,
						-0.08580419421195984,
						0.09311174601316452
					],
					[
						0.11431153863668442,
						0.21566851437091827,
						0.04804297164082527,
						-0.1725110113620758,
						-0.3314349055290222
					],
					[
						0.10566647350788116,
						0.04162848740816116,
						-0.07326692342758179,
						-0.023767510429024696,
						-0.14397956430912018
					],
					[
						-0.002483948366716504,
						-0.04802154377102852,
						-0.21676769852638245,
						-0.19451309740543365,
						-0.22757627069950104
					]
				],
				[
					[
						-0.07867100089788437,
						0.13873203098773956,
						0.2474183887243271,
						0.15187792479991913,
						0.10694657266139984
					],
					[
						-0.023038562387228012,
						0.042236339300870895,
						0.03437725454568863,
						-0.05656886473298073,
						-0.09195104241371155
					],
					[
						-0.038080230355262756,
						-0.0017615531105548143,
						0.12203740328550339,
						-0.25076642632484436,
						0.04886684566736221
					],
					[
						-0.06830724328756332,
						0.2615751028060913,
						0.09675928950309753,
						0.20564855635166168,
						-0.04433544725179672
					],
					[
						0.07413116097450256,
						0.030207663774490356,
						-0.13976553082466125,
						-0.17150336503982544,
						-0.3458506762981415
					]
				],
				[
					[
						0.19349905848503113,
						0.008225892670452595,
						0.05746404826641083,
						0.20949426293373108,
						0.2574272155761719
					],
					[
						0.2652342617511749,
						-0.11590543389320374,
						0.12909366190433502,
						0.27295011281967163,
						-0.0384395495057106
					],
					[
						0.10671298205852509,
						0.06568007171154022,
						-0.1695910096168518,
						-0.004896902944892645,
						-0.15753915905952454
					],
					[
						-0.16105763614177704,
						-0.26452159881591797,
						-0.22430545091629028,
						-0.1760374754667282,
						-0.3091624677181244
					],
					[
						-0.04211042448878288,
						-0.17025403678417206,
						-0.15055793523788452,
						-0.2822169363498688,
						-0.2982117831707001
					]
				],
				[
					[
						-0.001960084307938814,
						0.05525745451450348,
						-0.01992957293987274,
						0.07119190692901611,
						0.03202164173126221
					],
					[
						-0.03825341910123825,
						0.08823437988758087,
						0.14584557712078094,
						0.08015412837266922,
						0.08747655898332596
					],
					[
						0.07452641427516937,
						0.04790816083550453,
						-0.22931456565856934,
						-0.01286337897181511,
						-0.17660774290561676
					],
					[
						0.07600465416908264,
						0.054277367889881134,
						0.09721118956804276,
						0.023637894541025162,
						-0.25996699929237366
					],
					[
						-0.048808932304382324,
						0.06896143406629562,
						-0.056010887026786804,
						-0.046493154019117355,
						-0.26644089818000793
					]
				],
				[
					[
						-0.2679999768733978,
						0.002649659989401698,
						-0.06544673442840576,
						-0.3574599027633667,
						-0.2715889513492584
					],
					[
						-0.10994543880224228,
						0.06850054860115051,
						-0.07382556051015854,
						0.20779456198215485,
						0.24825146794319153
					],
					[
						0.000594874145463109,
						0.18818354606628418,
						0.23893684148788452,
						0.12545986473560333,
						0.3246668577194214
					],
					[
						0.10973044484853745,
						0.06649697571992874,
						0.28621309995651245,
						0.23604698479175568,
						0.14686237275600433
					],
					[
						0.19465458393096924,
						0.08750533312559128,
						0.016219638288021088,
						0.08699566125869751,
						-0.1341792792081833
					]
				]
			],
			[
				[
					[
						0.15894803404808044,
						0.05632731318473816,
						-0.020978953689336777,
						-0.19204756617546082,
						-0.2064138501882553
					],
					[
						-0.13020862638950348,
						-0.0625663474202156,
						0.2144484519958496,
						0.24107472598552704,
						0.2872845530509949
					],
					[
						0.026851674541831017,
						-0.25768935680389404,
						-0.15244102478027344,
						-0.10978910326957703,
						-0.12742097675800323
					],
					[
						0.15637339651584625,
						-0.028351785615086555,
						-0.002808486809954047,
						-0.15467780828475952,
						-0.05050512030720711
					],
					[
						0.0688745528459549,
						0.03262711316347122,
						0.0671793520450592,
						-0.2987634241580963,
						-0.24516184628009796
					]
				],
				[
					[
						-0.10316191613674164,
						-0.04286156967282295,
						0.13753485679626465,
						0.388632595539093,
						0.03858982026576996
					],
					[
						-0.1301761269569397,
						-0.20158913731575012,
						-0.1896154135465622,
						-0.16631628572940826,
						-0.02532818168401718
					],
					[
						-0.04643847048282623,
						-0.20982059836387634,
						-0.3508726954460144,
						-0.174944207072258,
						-0.09942160546779633
					],
					[
						0.13321779668331146,
						0.1538705825805664,
						0.23239631950855255,
						-0.04344961792230606,
						-0.2620777487754822
					],
					[
						-0.016552742570638657,
						0.04253478720784187,
						-0.08825156837701797,
						-0.08423987776041031,
						-0.07953900098800659
					]
				],
				[
					[
						-0.11631671339273453,
						0.08016013354063034,
						-0.04991849139332771,
						0.1116718053817749,
						0.12059994041919708
					],
					[
						-0.32706302404403687,
						0.058872271329164505,
						-0.009584125131368637,
						0.07447992265224457,
						0.08066171407699585
					],
					[
						-0.05376935377717018,
						-0.32305681705474854,
						0.016226474195718765,
						0.1436583250761032,
						0.1542290598154068
					],
					[
						-0.13967211544513702,
						0.04123528301715851,
						-0.11481557786464691,
						0.31505507230758667,
						0.30284571647644043
					],
					[
						0.09000568091869354,
						-0.060265637934207916,
						-0.14096951484680176,
						-0.2802627682685852,
						-0.0590885691344738
					]
				],
				[
					[
						-0.004955535754561424,
						0.04641208425164223,
						0.035134587436914444,
						-0.03226577863097191,
						-0.29836714267730713
					],
					[
						-0.04372572526335716,
						0.26593467593193054,
						0.20061413943767548,
						0.2673766613006592,
						0.01346522942185402
					],
					[
						-0.18064576387405396,
						-0.2466168999671936,
						-0.15339386463165283,
						-0.203041210770607,
						0.1631905734539032
					],
					[
						0.19437670707702637,
						0.0543409027159214,
						-0.2344513237476349,
						-0.3364938795566559,
						-0.16154298186302185
					],
					[
						0.024632949382066727,
						0.09025774896144867,
						0.176906555891037,
						0.08842013776302338,
						-0.25501400232315063
					]
				],
				[
					[
						0.054125066846609116,
						0.08223241567611694,
						-0.16245441138744354,
						-0.1904250532388687,
						-0.24617622792720795
					],
					[
						-0.018538203090429306,
						0.26905640959739685,
						0.2867777645587921,
						0.13324232399463654,
						0.06736620515584946
					],
					[
						0.0031568414997309446,
						0.0381648913025856,
						0.23431414365768433,
						0.23370975255966187,
						0.014600878581404686
					],
					[
						-0.2279406636953354,
						-0.08716589957475662,
						-0.2936567962169647,
						-0.016704309731721878,
						-0.14005185663700104
					],
					[
						0.14786657691001892,
						0.1414051651954651,
						0.1926855444908142,
						0.24084125459194183,
						0.1919562965631485
					]
				]
			],
			[
				[
					[
						-0.08973587304353714,
						-0.06389714032411575,
						0.021315617486834526,
						0.11975523829460144,
						0.10027017444372177
					],
					[
						0.025097861886024475,
						-0.0022407646756619215,
						0.0031242805998772383,
						0.020681312307715416,
						0.12135044485330582
					],
					[
						0.17884886264801025,
						-0.08565018326044083,
						-0.027308886870741844,
						-0.01011891383677721,
						-0.08002133667469025
					],
					[
						0.08859486877918243,
						0.12622617185115814,
						-0.010155728086829185,
						0.13439683616161346,
						-0.06488067656755447
					],
					[
						-0.021173939108848572,
						-0.04491257667541504,
						0.10706685483455658,
						-0.0351451076567173,
						-0.08963419497013092
					]
				],
				[
					[
						0.16730523109436035,
						0.12561042606830597,
						0.28658613562583923,
						0.1058264970779419,
						0.12047699093818665
					],
					[
						0.06277915835380554,
						0.10043062269687653,
						0.13861818611621857,
						-0.059775568544864655,
						-0.23808211088180542
					],
					[
						0.31984445452690125,
						0.12787838280200958,
						0.2556724548339844,
						0.18205766379833221,
						0.08225790411233902
					],
					[
						0.08456718921661377,
						-0.03842616826295853,
						-0.0005641564493998885,
						-0.01659243367612362,
						0.1885973960161209
					],
					[
						0.18820181488990784,
						-0.32334521412849426,
						0.18148788809776306,
						0.01792442612349987,
						0.11476899683475494
					]
				],
				[
					[
						0.05784819275140762,
						0.16874094307422638,
						-0.02404722198843956,
						0.04760486260056496,
						0.09109706431627274
					],
					[
						0.18359671533107758,
						0.11115008592605591,
						-0.28739404678344727,
						0.061809878796339035,
						0.06905883550643921
					],
					[
						-0.0682007223367691,
						0.08964662998914719,
						-0.026049979031085968,
						-0.10252231359481812,
						-0.20566634833812714
					],
					[
						-0.15613724291324615,
						0.01724820025265217,
						-0.052656594663858414,
						-0.22485820949077606,
						-0.10010287910699844
					],
					[
						-0.2594892382621765,
						-0.16685566306114197,
						0.04426972568035126,
						-0.2684319019317627,
						-0.11711393296718597
					]
				],
				[
					[
						-0.039183393120765686,
						0.04971197620034218,
						0.2185925543308258,
						-0.08704824000597,
						-0.24974876642227173
					],
					[
						0.24230769276618958,
						0.16556772589683533,
						0.09639845043420792,
						-0.21784420311450958,
						-0.13570615649223328
					],
					[
						0.10887695848941803,
						-0.11246524751186371,
						0.10517548769712448,
						-0.346624493598938,
						-0.16962239146232605
					],
					[
						0.09956377744674683,
						0.02494342066347599,
						-0.09683619439601898,
						0.2464108169078827,
						-0.08136878162622452
					],
					[
						0.01830953359603882,
						0.1168753057718277,
						-0.18945270776748657,
						-0.25078895688056946,
						0.12655404210090637
					]
				],
				[
					[
						-0.06440820544958115,
						0.0930102989077568,
						0.19367332756519318,
						0.02740905061364174,
						0.14655236899852753
					],
					[
						-0.20484566688537598,
						-0.09059110283851624,
						0.12843546271324158,
						0.07403567433357239,
						0.058054082095623016
					],
					[
						-0.07417937368154526,
						-0.00786379724740982,
						-0.021913276985287666,
						0.042799439281225204,
						0.11657647788524628
					],
					[
						0.11059121042490005,
						0.26720744371414185,
						0.37914350628852844,
						0.12262915819883347,
						0.20887263119220734
					],
					[
						0.22894485294818878,
						0.052231959998607635,
						-0.09872370958328247,
						-0.05366799235343933,
						0.035786524415016174
					]
				]
			],
			[
				[
					[
						0.08065828680992126,
						0.040166571736335754,
						-0.12568549811840057,
						0.03988036513328552,
						-0.11977585405111313
					],
					[
						0.15574407577514648,
						-0.1048782467842102,
						-0.15559688210487366,
						0.03331033140420914,
						0.06666292250156403
					],
					[
						0.10597740858793259,
						-0.11213459819555283,
						-0.11143670976161957,
						-0.26561811566352844,
						-0.03319036215543747
					],
					[
						0.21272966265678406,
						-0.24462059140205383,
						0.06946352869272232,
						-0.2131442427635193,
						-0.028057202696800232
					],
					[
						0.1426766812801361,
						0.070144884288311,
						0.03788391500711441,
						-0.15047131478786469,
						-0.07967016845941544
					]
				],
				[
					[
						0.1733350306749344,
						0.09426172077655792,
						0.23312345147132874,
						0.04136275127530098,
						-0.1534375697374344
					],
					[
						0.17728839814662933,
						-0.03864969313144684,
						0.18355977535247803,
						0.09335419535636902,
						-0.10234739631414413
					],
					[
						-0.23973122239112854,
						-0.13713385164737701,
						0.019540797919034958,
						0.12294966727495193,
						0.014851441606879234
					],
					[
						0.020380495116114616,
						0.14488284289836884,
						0.24896416068077087,
						0.150045707821846,
						-0.03247817978262901
					],
					[
						0.29268908500671387,
						0.2825065553188324,
						0.15764538943767548,
						-0.05359582602977753,
						-0.17371533811092377
					]
				],
				[
					[
						-0.1863720417022705,
						-0.023399943485856056,
						0.0494910329580307,
						-0.20111502707004547,
						0.012733451090753078
					],
					[
						0.0019862933550029993,
						0.02627737447619438,
						-0.2116345316171646,
						0.14679257571697235,
						0.19133085012435913
					],
					[
						-0.04348967224359512,
						0.07109160721302032,
						0.0709928572177887,
						0.033988919109106064,
						-0.061211783438920975
					],
					[
						-0.020143048837780952,
						0.16832900047302246,
						0.06669021397829056,
						-0.05264851450920105,
						0.3201303780078888
					],
					[
						-0.045722052454948425,
						0.14202024042606354,
						-0.08786781132221222,
						0.10304044932126999,
						0.14955632388591766
					]
				],
				[
					[
						-0.0015586173394694924,
						0.14528203010559082,
						-0.21100591123104095,
						-0.24323490262031555,
						-0.14922960102558136
					],
					[
						-0.02897638827562332,
						-0.01217615231871605,
						0.08710247278213501,
						-0.30418023467063904,
						-0.2177608460187912
					],
					[
						0.1017952412366867,
						0.08415722101926804,
						-0.19061073660850525,
						-0.14277644455432892,
						-0.034057676792144775
					],
					[
						-0.017794327810406685,
						0.15220506489276886,
						0.05878540128469467,
						-0.20840850472450256,
						-0.06864675879478455
					],
					[
						0.20084549486637115,
						0.16819028556346893,
						-0.11947561055421829,
						-0.32084059715270996,
						-0.3290463089942932
					]
				],
				[
					[
						-0.04866379126906395,
						0.1222667321562767,
						0.054722100496292114,
						-0.03377293050289154,
						-0.14670544862747192
					],
					[
						-0.03152228891849518,
						0.06553976982831955,
						-0.09869612008333206,
						0.08845116198062897,
						0.11610327661037445
					],
					[
						-0.07954598218202591,
						-0.21036070585250854,
						-0.10662033408880234,
						0.12479560077190399,
						-0.08862967044115067
					],
					[
						-0.0637771338224411,
						-0.025180602446198463,
						0.05198128521442413,
						0.07399126887321472,
						-0.17327764630317688
					],
					[
						0.04520859569311142,
						0.005944963078945875,
						-0.08607654273509979,
						-0.3459688127040863,
						-0.21135857701301575
					]
				]
			],
			[
				[
					[
						-0.09159179776906967,
						-0.06137653440237045,
						-0.11792165040969849,
						0.12298395484685898,
						0.06567182391881943
					],
					[
						-0.1013546735048294,
						0.028391778469085693,
						-0.2641848623752594,
						-0.09601160138845444,
						-0.12095986306667328
					],
					[
						-0.10560372471809387,
						0.01068567018955946,
						0.03656214848160744,
						0.19584360718727112,
						0.023828519508242607
					],
					[
						0.1364864557981491,
						0.08265147358179092,
						-0.10351497679948807,
						0.13889607787132263,
						0.20461520552635193
					],
					[
						0.1517922580242157,
						-0.03217374160885811,
						0.02368723601102829,
						-0.018922440707683563,
						0.11517073214054108
					]
				],
				[
					[
						-0.048284441232681274,
						0.13478145003318787,
						0.008250868879258633,
						-0.005783767439424992,
						-0.057646386325359344
					],
					[
						-0.005636561196297407,
						0.036949776113033295,
						-0.2514186203479767,
						0.014936519786715508,
						-0.021556245163083076
					],
					[
						-0.23368610441684723,
						-0.07188701629638672,
						-0.15002493560314178,
						0.1799781620502472,
						0.012491302564740181
					],
					[
						-0.11275861412286758,
						-0.03613954037427902,
						0.04984988272190094,
						0.014683526009321213,
						0.06615175306797028
					],
					[
						-0.16158868372440338,
						-0.131438747048378,
						0.055581558495759964,
						-0.06435767561197281,
						-0.2525623142719269
					]
				],
				[
					[
						0.06608979403972626,
						-0.15781466662883759,
						-0.25550612807273865,
						0.011089716106653214,
						-0.08089935779571533
					],
					[
						0.028742056339979172,
						-0.11425898224115372,
						-0.24494633078575134,
						-0.17377378046512604,
						-0.2363746464252472
					],
					[
						-0.03543742746114731,
						-0.07857389003038406,
						0.16331979632377625,
						-0.1822391003370285,
						-0.2705390155315399
					],
					[
						0.013670587912201881,
						0.04625198245048523,
						0.06426380574703217,
						0.18644151091575623,
						0.35044369101524353
					],
					[
						0.11220318078994751,
						0.2562273442745209,
						0.3475276827812195,
						0.4519999921321869,
						0.536773681640625
					]
				],
				[
					[
						0.20395945012569427,
						0.01611618883907795,
						-0.00640362873673439,
						-0.15660704672336578,
						-0.1350504606962204
					],
					[
						0.03267735615372658,
						0.022151095792651176,
						0.1804700344800949,
						0.23883967101573944,
						0.15793195366859436
					],
					[
						-0.05638385936617851,
						0.3055828809738159,
						0.10482042282819748,
						0.05302814021706581,
						0.2122775763273239
					],
					[
						-0.27817919850349426,
						0.018604714423418045,
						0.045546870678663254,
						0.3953321576118469,
						0.10183589160442352
					],
					[
						-0.07505907863378525,
						-0.20164674520492554,
						0.05073537677526474,
						-0.044459983706474304,
						-0.050624698400497437
					]
				],
				[
					[
						-0.2450713813304901,
						0.048659779131412506,
						0.08487796783447266,
						0.00986100547015667,
						0.14375247061252594
					],
					[
						-0.0036086845211684704,
						0.0445379763841629,
						-0.05922432243824005,
						0.14759130775928497,
						0.00330746709369123
					],
					[
						-0.28426945209503174,
						-0.19884003698825836,
						-0.19045980274677277,
						-0.044142093509435654,
						-0.22472159564495087
					],
					[
						-0.10378540307283401,
						-0.16410088539123535,
						-0.321721613407135,
						-0.192317932844162,
						0.08577252924442291
					],
					[
						-0.019640857353806496,
						-0.1348990797996521,
						-0.18468277156352997,
						-0.05234953761100769,
						-0.3057178556919098
					]
				]
			],
			[
				[
					[
						0.09112970530986786,
						-0.1298254132270813,
						-0.05012050271034241,
						0.0457182303071022,
						0.030550653114914894
					],
					[
						0.10139616578817368,
						-0.0033561009913682938,
						0.07841343432664871,
						0.011881500482559204,
						0.008273221552371979
					],
					[
						0.1308949589729309,
						0.2106216847896576,
						-0.0930669903755188,
						0.005088793113827705,
						-0.01678120158612728
					],
					[
						-0.055911123752593994,
						-0.012486935593187809,
						-0.050129879266023636,
						-0.195264533162117,
						-0.15513795614242554
					],
					[
						0.16417093575000763,
						0.26544737815856934,
						0.02445528656244278,
						0.06913158297538757,
						-0.001503441366367042
					]
				],
				[
					[
						0.06114322319626808,
						0.018392179161310196,
						-0.2639105021953583,
						-0.1946645975112915,
						-0.024174846708774567
					],
					[
						0.08103907108306885,
						0.12042678147554398,
						0.19213621318340302,
						-0.03864337131381035,
						-0.10841015726327896
					],
					[
						-0.18464908003807068,
						-0.19468940794467926,
						-0.2495313435792923,
						0.14535827934741974,
						-0.21180002391338348
					],
					[
						-0.1040261760354042,
						0.031901925802230835,
						-0.08890463411808014,
						-0.14514853060245514,
						0.3016982078552246
					],
					[
						0.2915722131729126,
						0.3585296869277954,
						0.18259558081626892,
						0.10269581526517868,
						-0.06890536099672318
					]
				],
				[
					[
						0.13582055270671844,
						0.15879537165164948,
						0.17981939017772675,
						0.18702653050422668,
						0.12799958884716034
					],
					[
						0.13103562593460083,
						0.19985906779766083,
						0.21713058650493622,
						0.22290343046188354,
						0.3858664333820343
					],
					[
						-0.052409496158361435,
						-0.2908600866794586,
						0.07453209906816483,
						0.02852427214384079,
						-0.11287669837474823
					],
					[
						-0.2291920781135559,
						-0.15554949641227722,
						-0.048661693930625916,
						-0.3015790283679962,
						-0.1990303099155426
					],
					[
						0.10279156267642975,
						0.3629908263683319,
						0.11918117851018906,
						0.24144427478313446,
						-0.06897434592247009
					]
				],
				[
					[
						0.08788051456212997,
						-0.023960182443261147,
						-0.006829556543380022,
						-0.08272137492895126,
						-0.0625857263803482
					],
					[
						0.25899481773376465,
						0.03771655261516571,
						-0.034050680696964264,
						-0.22003193199634552,
						-0.10401904582977295
					],
					[
						-0.03045419044792652,
						0.08347506821155548,
						0.2674860656261444,
						0.19622407853603363,
						0.10988384485244751
					],
					[
						-0.02868155762553215,
						-0.13660241663455963,
						-0.028504153713583946,
						-0.007675774861127138,
						0.06388195604085922
					],
					[
						0.07041559368371964,
						0.19655941426753998,
						0.09215062856674194,
						0.023553267121315002,
						-0.025568220764398575
					]
				],
				[
					[
						-0.02418982982635498,
						-0.021393321454524994,
						0.02022579312324524,
						0.1896965056657791,
						0.12350733578205109
					],
					[
						0.008281439542770386,
						0.21977642178535461,
						0.30243030190467834,
						0.14182770252227783,
						0.12301012128591537
					],
					[
						0.1032087430357933,
						0.08956736326217651,
						0.09347472339868546,
						0.07448861747980118,
						0.21802940964698792
					],
					[
						-0.16111502051353455,
						-0.40806859731674194,
						-0.387337863445282,
						-0.2887272536754608,
						-0.2515438497066498
					],
					[
						-0.258413702249527,
						-0.13276755809783936,
						-0.22671090066432953,
						-0.14289052784442902,
						-0.1490258127450943
					]
				]
			],
			[
				[
					[
						-0.09591873735189438,
						-0.11067982763051987,
						-0.036901336163282394,
						-0.015286341309547424,
						-0.02511061169207096
					],
					[
						0.09108180552721024,
						0.1518820822238922,
						-0.02486039698123932,
						0.05557471886277199,
						-0.12614639103412628
					],
					[
						0.1909695863723755,
						-0.007434409577399492,
						-0.17666979134082794,
						0.06528313457965851,
						0.057931702584028244
					],
					[
						0.06833752989768982,
						0.11784247308969498,
						-0.036468904465436935,
						-0.03587336838245392,
						0.026109321042895317
					],
					[
						0.013097229413688183,
						0.23035761713981628,
						-0.020459339022636414,
						-0.2122565656900406,
						0.13885022699832916
					]
				],
				[
					[
						0.0008117739926092327,
						-0.11564694344997406,
						0.08721926808357239,
						0.12832017242908478,
						0.06404834985733032
					],
					[
						-0.0650860145688057,
						-0.06330764293670654,
						-0.04891715198755264,
						0.2985338568687439,
						0.07233939319849014
					],
					[
						0.14207836985588074,
						-0.1087229922413826,
						0.017700569704174995,
						0.32726001739501953,
						0.052159082144498825
					],
					[
						-0.19546787440776825,
						0.12722373008728027,
						0.2565625011920929,
						0.20346789062023163,
						0.017927132546901703
					],
					[
						0.10638093203306198,
						-0.03600909933447838,
						0.21569764614105225,
						0.028769955039024353,
						-0.25894540548324585
					]
				],
				[
					[
						0.005714884493499994,
						0.05669821798801422,
						0.22018758952617645,
						0.3970361351966858,
						-0.0575893260538578
					],
					[
						-0.0017065276624634862,
						0.12956935167312622,
						0.4498964548110962,
						-0.11959497630596161,
						-0.149400994181633
					],
					[
						0.06230984628200531,
						0.14292341470718384,
						-0.030241411179304123,
						-0.3505121171474457,
						-0.15969635546207428
					],
					[
						0.03510338068008423,
						0.05908467620611191,
						-0.24595527350902557,
						-0.29249945282936096,
						-0.18450064957141876
					],
					[
						0.115962453186512,
						0.06549083441495895,
						0.031353071331977844,
						-0.09255348891019821,
						0.1384189873933792
					]
				],
				[
					[
						-0.02660476230084896,
						-0.05794161558151245,
						0.02901829034090042,
						-0.005221819505095482,
						-0.1515108048915863
					],
					[
						0.1762641817331314,
						-0.08109111338853836,
						-0.16982978582382202,
						-0.15929807722568512,
						0.01800387166440487
					],
					[
						0.0679006278514862,
						-0.16047000885009766,
						0.0780678391456604,
						0.21613186597824097,
						-0.023326048627495766
					],
					[
						0.0992823913693428,
						-0.038206446915864944,
						0.31838300824165344,
						0.09496261924505234,
						-0.11781591176986694
					],
					[
						0.21258360147476196,
						0.1326538473367691,
						0.30970099568367004,
						-0.3372517228126526,
						-0.24329006671905518
					]
				],
				[
					[
						-0.05373147875070572,
						-0.12010541558265686,
						-0.03410428389906883,
						0.11822369694709778,
						-0.04707522690296173
					],
					[
						-0.19346600770950317,
						-0.16903240978717804,
						-0.038032181560993195,
						0.291647732257843,
						0.05804944038391113
					],
					[
						-0.08565899729728699,
						-0.1223282665014267,
						-0.07570444792509079,
						-0.10449711978435516,
						-0.08248072117567062
					],
					[
						-0.3032386004924774,
						-0.19003824889659882,
						-0.12348683923482895,
						0.10363207757472992,
						0.1586751788854599
					],
					[
						-0.15327933430671692,
						-0.01813501864671707,
						-0.017291255295276642,
						0.21070104837417603,
						-0.15826602280139923
					]
				]
			],
			[
				[
					[
						0.09084731340408325,
						0.11860208958387375,
						-0.02178141102194786,
						-0.1386771947145462,
						-0.04860733449459076
					],
					[
						0.08207900822162628,
						0.06564208120107651,
						0.0699840784072876,
						-0.07126958668231964,
						0.022422313690185547
					],
					[
						0.3055308759212494,
						-0.11376796662807465,
						-0.18194936215877533,
						-0.2808918058872223,
						0.2787589430809021
					],
					[
						0.06173282116651535,
						-0.32945698499679565,
						-0.5031472444534302,
						-0.13918805122375488,
						0.2444404810667038
					],
					[
						-0.030630502849817276,
						-0.3281032145023346,
						-0.10265449434518814,
						0.08377750217914581,
						0.3920291066169739
					]
				],
				[
					[
						0.24904417991638184,
						0.08690939098596573,
						-0.2271498143672943,
						-0.3025229573249817,
						-0.2413385659456253
					],
					[
						-0.008225909434258938,
						-0.08139876276254654,
						-0.12411702424287796,
						-0.14733904600143433,
						0.023967567831277847
					],
					[
						-0.27477526664733887,
						-0.09614091366529465,
						-0.027674883604049683,
						-0.10673411935567856,
						0.19128744304180145
					],
					[
						-0.48280614614486694,
						-0.28808504343032837,
						-0.00810691062361002,
						0.005219696089625359,
						0.05320030078291893
					],
					[
						-0.1679849922657013,
						-0.18830129504203796,
						-0.010460288263857365,
						0.17529618740081787,
						0.2598395347595215
					]
				],
				[
					[
						0.22966191172599792,
						0.011006994172930717,
						-0.27528584003448486,
						-0.12295212596654892,
						0.028806915506720543
					],
					[
						0.23882590234279633,
						0.24478667974472046,
						-0.15220078825950623,
						-0.0021568122319877148,
						0.18369096517562866
					],
					[
						0.23061954975128174,
						0.2243414670228958,
						-0.15354137122631073,
						0.023215968161821365,
						0.1066303700208664
					],
					[
						0.214410200715065,
						0.2072889655828476,
						-0.020714422687888145,
						-0.21830040216445923,
						0.0777864083647728
					],
					[
						0.059955887496471405,
						0.12347789853811264,
						-0.2634054720401764,
						-0.15162476897239685,
						0.1582103818655014
					]
				],
				[
					[
						0.3472002148628235,
						0.1443636119365692,
						-0.1873611956834793,
						-0.07309630513191223,
						-0.06477008014917374
					],
					[
						0.27288559079170227,
						0.21393704414367676,
						-0.24198468029499054,
						-0.035308972001075745,
						-0.25292426347732544
					],
					[
						0.29728826880455017,
						0.1823391616344452,
						-0.04664697125554085,
						-0.3177959620952606,
						-0.05595986917614937
					],
					[
						-0.15959294140338898,
						-0.032984938472509384,
						-0.1261303871870041,
						-0.3473323583602905,
						-0.18200059235095978
					],
					[
						-0.16952483355998993,
						0.053239088505506516,
						0.05182645469903946,
						-0.043807562440633774,
						0.05081608146429062
					]
				],
				[
					[
						0.05573567375540733,
						-0.07575690001249313,
						-0.04891645535826683,
						0.01681061089038849,
						0.172465980052948
					],
					[
						0.01982739195227623,
						-0.3560594916343689,
						-0.12131593376398087,
						0.13316309452056885,
						0.11173976957798004
					],
					[
						-0.06385134160518646,
						0.06886271387338638,
						-0.27179139852523804,
						-0.02724006585776806,
						0.22708052396774292
					],
					[
						0.06385031342506409,
						-0.11364372074604034,
						-0.17719672620296478,
						0.20006296038627625,
						0.38461846113204956
					],
					[
						0.0032046278938651085,
						-0.08250737190246582,
						-0.05847017094492912,
						0.16526401042938232,
						0.33019039034843445
					]
				]
			],
			[
				[
					[
						0.12668853998184204,
						0.12215884029865265,
						-0.03686065599322319,
						-0.23381757736206055,
						-0.07769296318292618
					],
					[
						0.14522527158260345,
						0.04705715924501419,
						-0.03373288735747337,
						-0.03411801531910896,
						-0.15563106536865234
					],
					[
						-0.09188203513622284,
						-0.09299542754888535,
						-0.028974387794733047,
						-0.15055707097053528,
						-0.10160686075687408
					],
					[
						-0.14909152686595917,
						-0.024577029049396515,
						0.006830521859228611,
						0.08089026063680649,
						-0.056636180728673935
					],
					[
						-0.054010286927223206,
						-0.12248124927282333,
						0.07245136797428131,
						0.1672869473695755,
						-0.062362734228372574
					]
				],
				[
					[
						-0.05823232978582382,
						-0.17210066318511963,
						-0.1484580636024475,
						-0.16731636226177216,
						-0.36421775817871094
					],
					[
						-0.40249699354171753,
						0.039694447070360184,
						-0.1047237366437912,
						0.007706983480602503,
						0.06386709213256836
					],
					[
						0.05386761575937271,
						-0.13843438029289246,
						-0.11490568518638611,
						0.1133304238319397,
						0.11535049229860306
					],
					[
						-0.10011504590511322,
						-0.0730866864323616,
						0.2613540589809418,
						0.29481202363967896,
						0.007166262250393629
					],
					[
						-0.16914056241512299,
						-0.07379473000764847,
						-0.09759048372507095,
						-0.17838598787784576,
						-0.19636903703212738
					]
				],
				[
					[
						0.0939115509390831,
						0.14209815859794617,
						0.268171101808548,
						-0.07746900618076324,
						0.002130418084561825
					],
					[
						0.11861377209424973,
						0.1375858187675476,
						0.22463801503181458,
						-0.14069248735904694,
						-0.04493497312068939
					],
					[
						-0.03212235867977142,
						-0.019599352031946182,
						-0.09873116761445999,
						-0.16514994204044342,
						-0.275414377450943
					],
					[
						0.03746684268116951,
						-0.04664351046085358,
						-0.21907193958759308,
						-0.00034445011988282204,
						0.06290707737207413
					],
					[
						0.011656057089567184,
						0.22190147638320923,
						0.19631220400333405,
						-0.01151511911302805,
						0.2397531270980835
					]
				],
				[
					[
						-0.16218315064907074,
						0.08503355830907822,
						-0.11340628564357758,
						-0.1282634437084198,
						-0.24745365977287292
					],
					[
						0.16003134846687317,
						-0.2542310655117035,
						-0.27132701873779297,
						-0.039637718349695206,
						-0.29726070165634155
					],
					[
						-0.06955331563949585,
						0.10880880057811737,
						-0.03207477554678917,
						-0.29042449593544006,
						0.11830844730138779
					],
					[
						-0.09954680502414703,
						-0.21924038231372833,
						0.3173212707042694,
						0.13727547228336334,
						0.06460371613502502
					],
					[
						-0.02960052341222763,
						0.022898277267813683,
						0.08415447175502777,
						0.20219892263412476,
						-0.15747617185115814
					]
				],
				[
					[
						0.054578687995672226,
						0.13848818838596344,
						-0.045509181916713715,
						0.15969914197921753,
						0.46085888147354126
					],
					[
						-0.17554010450839996,
						-0.018590504303574562,
						0.056095268577337265,
						-0.05518961325287819,
						0.08941411972045898
					],
					[
						0.032514654099941254,
						-0.02679547294974327,
						0.0818435326218605,
						0.18333128094673157,
						0.07429763674736023
					],
					[
						-0.05465356633067131,
						0.1250631958246231,
						0.04959920793771744,
						0.09477641433477402,
						0.07809968292713165
					],
					[
						-0.25136318802833557,
						-0.2885202467441559,
						-0.06413647532463074,
						-0.068239726126194,
						-0.17939214408397675
					]
				]
			],
			[
				[
					[
						0.029893696308135986,
						0.08660281449556351,
						-0.0005135568790137768,
						0.11644932627677917,
						-0.03791922703385353
					],
					[
						0.05975273996591568,
						-0.0971018597483635,
						-0.11534617841243744,
						0.07611244916915894,
						0.11704860627651215
					],
					[
						-0.01709304191172123,
						0.13628990948200226,
						0.07626638561487198,
						0.14952675998210907,
						-0.053615447133779526
					],
					[
						-0.3306412398815155,
						-0.17589743435382843,
						-0.0002514726365916431,
						-0.032104916870594025,
						0.05072963237762451
					],
					[
						-0.31253761053085327,
						-0.3535595238208771,
						-0.07497220486402512,
						-0.16842038929462433,
						-0.09930595010519028
					]
				],
				[
					[
						-0.05615267902612686,
						0.04957367479801178,
						0.23101229965686798,
						0.31238165497779846,
						0.1043744757771492
					],
					[
						-0.2763066589832306,
						0.15112030506134033,
						0.24277232587337494,
						0.2393943816423416,
						0.04967592656612396
					],
					[
						-0.137876495718956,
						-0.062077563256025314,
						0.2578544020652771,
						0.15682443976402283,
						-0.14711256325244904
					],
					[
						-0.2167893499135971,
						-0.16883835196495056,
						-0.1350090354681015,
						-0.031495459377765656,
						0.13066336512565613
					],
					[
						0.11316501349210739,
						-0.20719312131404877,
						-0.2577354907989502,
						0.1934746652841568,
						0.15368351340293884
					]
				],
				[
					[
						-0.023274296894669533,
						-0.006448395550251007,
						-0.20915521681308746,
						-0.17377640306949615,
						-0.0286336001008749
					],
					[
						0.10540473461151123,
						-0.03710893169045448,
						-0.09374696761369705,
						-0.3302376866340637,
						-0.011958261951804161
					],
					[
						0.060657937079668045,
						0.12114521861076355,
						-0.1299683153629303,
						-0.11512941122055054,
						-0.14699667692184448
					],
					[
						-0.04736657813191414,
						0.001521856291219592,
						0.044360361993312836,
						-0.09340085089206696,
						0.025029953569173813
					],
					[
						0.12246707081794739,
						0.010248634964227676,
						0.1303906887769699,
						0.21316096186637878,
						0.2565108835697174
					]
				],
				[
					[
						0.2182009369134903,
						-0.06564369052648544,
						0.029905587434768677,
						-0.11757339537143707,
						-0.14635924994945526
					],
					[
						-0.1313292384147644,
						0.023102127015590668,
						0.07587521523237228,
						0.17704078555107117,
						-0.017579173669219017
					],
					[
						0.0018808068707585335,
						-0.055857546627521515,
						0.20010493695735931,
						0.10805889964103699,
						0.11112219840288162
					],
					[
						-0.22998058795928955,
						-0.16653314232826233,
						0.08752462267875671,
						0.2049177885055542,
						0.14644679427146912
					],
					[
						-0.2907753884792328,
						-0.4325510263442993,
						-0.33486101031303406,
						-0.2399696707725525,
						0.05882026627659798
					]
				],
				[
					[
						-0.16806811094284058,
						-0.14093253016471863,
						0.052405115216970444,
						-0.06173345074057579,
						0.017947988584637642
					],
					[
						-0.30496421456336975,
						0.09855939447879791,
						0.18747912347316742,
						0.30734363198280334,
						0.027507584542036057
					],
					[
						0.20065803825855255,
						0.06359688192605972,
						0.34501415491104126,
						0.022267209365963936,
						0.012483758851885796
					],
					[
						0.18407785892486572,
						-0.007643492892384529,
						0.1667807549238205,
						0.16668613255023956,
						0.21566049754619598
					],
					[
						0.048422325402498245,
						-0.18951307237148285,
						-0.22773201763629913,
						0.14074157178401947,
						0.03777744248509407
					]
				]
			],
			[
				[
					[
						0.0250038281083107,
						0.05297711864113808,
						0.10823305696249008,
						0.1622474044561386,
						0.08095603436231613
					],
					[
						0.17007221281528473,
						0.3231140971183777,
						0.16866643726825714,
						0.05888199433684349,
						-0.3191678822040558
					],
					[
						0.13299962878227234,
						0.16127026081085205,
						0.21522249281406403,
						-0.0015658847987651825,
						0.04847867414355278
					],
					[
						-0.11112108081579208,
						0.005097415763884783,
						0.07246198505163193,
						0.033904749900102615,
						-0.1332872360944748
					],
					[
						-0.4021438956260681,
						-0.34614530205726624,
						-0.15180522203445435,
						-0.28007766604423523,
						-0.22039665281772614
					]
				],
				[
					[
						0.11240661144256592,
						-0.12362432479858398,
						-0.0037956279702484608,
						0.043091483414173126,
						0.027520958334207535
					],
					[
						-0.10438559204339981,
						-0.15082626044750214,
						-0.29738420248031616,
						-0.1644810140132904,
						-0.09364232420921326
					],
					[
						-0.09485068917274475,
						-0.03312547132372856,
						-0.022749587893486023,
						-0.20338043570518494,
						0.1051219254732132
					],
					[
						0.09484270960092545,
						-0.03536315634846687,
						-0.332539439201355,
						-0.40469789505004883,
						-0.19906416535377502
					],
					[
						0.20774886012077332,
						0.06386028230190277,
						-0.03970879316329956,
						-0.30326929688453674,
						0.02286146767437458
					]
				],
				[
					[
						0.2035929262638092,
						0.15503378212451935,
						0.11991932988166809,
						0.07313038408756256,
						-0.0548863559961319
					],
					[
						0.10497545450925827,
						0.06725940108299255,
						0.1577175259590149,
						0.12095695734024048,
						0.1541932076215744
					],
					[
						-0.07151216268539429,
						0.021289680153131485,
						0.07186883687973022,
						0.10795892775058746,
						-0.12888145446777344
					],
					[
						-0.03658614680171013,
						0.0721801370382309,
						-0.05023922771215439,
						-0.07651247829198837,
						-0.0070252264849841595
					],
					[
						0.004918448626995087,
						0.02373160608112812,
						-0.1687496304512024,
						-0.21696966886520386,
						0.13693179190158844
					]
				],
				[
					[
						0.09015459567308426,
						-0.32945263385772705,
						0.16014838218688965,
						0.04213058948516846,
						0.2528710961341858
					],
					[
						0.03490563854575157,
						-0.3534122109413147,
						-0.11074943095445633,
						0.10216475278139114,
						0.20941893756389618
					],
					[
						0.07888926565647125,
						-0.09781867265701294,
						-0.13509216904640198,
						0.03350080922245979,
						0.10621744394302368
					],
					[
						0.07873732596635818,
						-0.0011684582568705082,
						-0.2442161738872528,
						-0.07892271876335144,
						-0.09393348544836044
					],
					[
						0.012273004278540611,
						0.013509931974112988,
						0.03600149229168892,
						-0.011643009260296822,
						0.06978777050971985
					]
				],
				[
					[
						-0.19402585923671722,
						-0.10582638531923294,
						-0.0651581808924675,
						0.037896037101745605,
						-0.018107417970895767
					],
					[
						-0.05087360367178917,
						-0.1944674700498581,
						-0.19198128581047058,
						-0.08438149094581604,
						0.1646786332130432
					],
					[
						0.06138071045279503,
						0.020253069698810577,
						-0.16159532964229584,
						-0.1956007033586502,
						-0.08642910420894623
					],
					[
						0.2707803249359131,
						0.268688827753067,
						0.19016171991825104,
						0.05536036565899849,
						0.07948503643274307
					],
					[
						0.3005392551422119,
						0.2821747660636902,
						0.32351964712142944,
						0.02025686390697956,
						0.13122129440307617
					]
				]
			],
			[
				[
					[
						0.05375145003199577,
						-0.11553510278463364,
						0.031322069466114044,
						-0.18403519690036774,
						-0.011495210230350494
					],
					[
						-0.07568708062171936,
						-0.27608349919319153,
						-0.10487566888332367,
						-0.0013984297402203083,
						0.3336465060710907
					],
					[
						-0.08588892221450806,
						-0.018205123022198677,
						0.09395001828670502,
						0.3099530041217804,
						-0.09324197471141815
					],
					[
						0.2354341596364975,
						0.020890722051262856,
						-0.13680599629878998,
						0.05256728455424309,
						0.012845215387642384
					],
					[
						-0.05184653028845787,
						-0.08358914405107498,
						0.018160372972488403,
						0.18270550668239594,
						0.11064683645963669
					]
				],
				[
					[
						-0.13764899969100952,
						-0.159175843000412,
						-0.12651339173316956,
						-0.08804298937320709,
						0.2616805136203766
					],
					[
						0.20413966476917267,
						0.13784819841384888,
						0.05999848246574402,
						0.07277771085500717,
						-0.040219809859991074
					],
					[
						0.2362934947013855,
						-0.0812905803322792,
						-0.18005768954753876,
						0.06592550128698349,
						0.2237669676542282
					],
					[
						-0.2669462263584137,
						-0.16372495889663696,
						-0.07598667591810226,
						-0.1502518504858017,
						0.23749420046806335
					],
					[
						-0.28484293818473816,
						0.039991363883018494,
						0.11571411043405533,
						-0.07202611863613129,
						-0.10144947469234467
					]
				],
				[
					[
						-0.09521284699440002,
						-0.07775109261274338,
						-0.3662809431552887,
						-0.3116719722747803,
						-0.05861159414052963
					],
					[
						-0.18014179170131683,
						-0.2632148861885071,
						0.13654516637325287,
						0.32499000430107117,
						0.15918992459774017
					],
					[
						0.10412261635065079,
						0.06144319474697113,
						0.41587403416633606,
						-0.010911047458648682,
						-0.06600406765937805
					],
					[
						0.22016873955726624,
						0.1504296064376831,
						-0.16638951003551483,
						0.07953651249408722,
						0.13222886621952057
					],
					[
						0.021331191062927246,
						-0.21088314056396484,
						-0.24291841685771942,
						-0.2827412784099579,
						-0.011551558040082455
					]
				],
				[
					[
						-0.33966296911239624,
						-0.06610975414514542,
						0.20861022174358368,
						0.14097388088703156,
						-0.07298606634140015
					],
					[
						0.013587812893092632,
						-0.22181327641010284,
						0.1734076291322708,
						-0.1081332191824913,
						-0.2651804983615875
					],
					[
						0.24147017300128937,
						0.02584090456366539,
						-0.10719389468431473,
						-0.11730547249317169,
						0.009746396914124489
					],
					[
						-0.18623411655426025,
						-0.1991342306137085,
						-0.25106340646743774,
						-0.24629153311252594,
						0.0014300151960924268
					],
					[
						-0.24834811687469482,
						0.08696916699409485,
						0.11377336084842682,
						-0.05515708029270172,
						-0.12487956136465073
					]
				],
				[
					[
						0.2576795220375061,
						0.256732314825058,
						0.34436431527137756,
						-0.05743035674095154,
						0.019593296572566032
					],
					[
						0.15245014429092407,
						0.09540047496557236,
						-0.1644463837146759,
						-0.3143066465854645,
						-0.18214209377765656
					],
					[
						-0.012580405920743942,
						-0.12955063581466675,
						0.2173415869474411,
						0.15152017772197723,
						0.026823902502655983
					],
					[
						-0.1903940737247467,
						-0.23159100115299225,
						0.23562487959861755,
						0.09919580072164536,
						0.10321629047393799
					],
					[
						0.1403147578239441,
						0.07728803902864456,
						0.0061826929450035095,
						0.018521320074796677,
						-0.0046277716755867004
					]
				]
			],
			[
				[
					[
						-0.16334542632102966,
						-0.07046789675951004,
						-0.08878389000892639,
						-0.009501487948000431,
						0.037497539073228836
					],
					[
						-0.23056085407733917,
						-0.19121544063091278,
						-0.3014712333679199,
						-0.06455617398023605,
						0.1755305528640747
					],
					[
						-0.11017230153083801,
						-0.3539002537727356,
						-0.19816458225250244,
						-0.12093886733055115,
						0.03828021138906479
					],
					[
						-0.07361661642789841,
						-0.130376935005188,
						-0.03514143079519272,
						-0.00802325177937746,
						-0.009170065633952618
					],
					[
						0.06205614656209946,
						0.18663696944713593,
						0.22322861850261688,
						0.1850452423095703,
						0.22845695912837982
					]
				],
				[
					[
						-0.16122548282146454,
						-0.031736090779304504,
						0.040649477392435074,
						0.09563786536455154,
						-0.02161829173564911
					],
					[
						0.02842046320438385,
						-0.24409480392932892,
						-0.03383949398994446,
						-0.051356226205825806,
						0.0935535877943039
					],
					[
						-0.12921975553035736,
						-0.03317791223526001,
						0.09322837740182877,
						0.050263091921806335,
						0.07948458939790726
					],
					[
						0.19350643455982208,
						0.38738808035850525,
						0.3586729168891907,
						0.30397167801856995,
						0.21678708493709564
					],
					[
						0.15916933119297028,
						0.33137255907058716,
						0.27186813950538635,
						0.267900288105011,
						0.15995819866657257
					]
				],
				[
					[
						-0.10550583153963089,
						0.036614734679460526,
						0.18525740504264832,
						0.14432427287101746,
						0.425008624792099
					],
					[
						-0.10760702192783356,
						-0.02692294493317604,
						0.014025507494807243,
						0.08115915954113007,
						0.0036416626535356045
					],
					[
						-0.19108036160469055,
						-0.15627746284008026,
						-0.42088010907173157,
						-0.6257032752037048,
						-0.07795286178588867
					],
					[
						-0.024693503975868225,
						-0.1427181214094162,
						-0.1855091005563736,
						-0.07182496786117554,
						0.1369510293006897
					],
					[
						0.16830843687057495,
						0.28521353006362915,
						0.5434032082557678,
						0.3458719253540039,
						0.1534118354320526
					]
				],
				[
					[
						-0.16429409384727478,
						-0.053788553923368454,
						-0.17267265915870667,
						-0.1923854649066925,
						0.029293391853570938
					],
					[
						-0.2746945023536682,
						-0.11051880568265915,
						-0.05424631014466286,
						-0.021622441709041595,
						-0.08607520163059235
					],
					[
						-0.023862218484282494,
						-0.05912751704454422,
						-0.009503346867859364,
						-0.08755642175674438,
						-0.15916651487350464
					],
					[
						-0.2656700611114502,
						-0.10021697729825974,
						-0.12380872666835785,
						-0.3604517877101898,
						0.11201147735118866
					],
					[
						-0.004619293846189976,
						0.03067128360271454,
						-0.04482974857091904,
						0.13379709422588348,
						0.012717747129499912
					]
				],
				[
					[
						0.013537630438804626,
						0.1887880116701126,
						0.0733105018734932,
						0.132278174161911,
						0.11078350245952606
					],
					[
						0.009627425111830235,
						0.13311903178691864,
						0.170376718044281,
						0.3957728147506714,
						0.37811440229415894
					],
					[
						-0.07621702551841736,
						0.3227313160896301,
						0.1896376758813858,
						0.13351620733737946,
						-0.19696353375911713
					],
					[
						-0.008691871538758278,
						-0.2042251080274582,
						-0.17039403319358826,
						-0.3624476194381714,
						0.017770949751138687
					],
					[
						-0.10758478194475174,
						-0.27178969979286194,
						-0.2385200560092926,
						-0.08588763326406479,
						0.017866523936390877
					]
				]
			],
			[
				[
					[
						0.09107233583927155,
						-0.012444251216948032,
						0.16311383247375488,
						0.0008537269313819706,
						-0.03925224766135216
					],
					[
						0.02915414422750473,
						-0.06193254515528679,
						-0.0766768679022789,
						0.13610193133354187,
						0.11497163772583008
					],
					[
						0.07491151243448257,
						0.07792849838733673,
						-0.17084407806396484,
						-0.030583644285798073,
						0.19506295025348663
					],
					[
						0.006279144436120987,
						0.1549171805381775,
						-0.1355324536561966,
						-0.29754891991615295,
						-0.3051017224788666
					],
					[
						-0.06333238631486893,
						0.09704466164112091,
						0.32747089862823486,
						0.1512136310338974,
						-0.22162769734859467
					]
				],
				[
					[
						-0.19669298827648163,
						-0.19000078737735748,
						-0.10206253081560135,
						0.10543244332075119,
						0.23045730590820312
					],
					[
						-0.026078250259160995,
						-0.2473810315132141,
						-0.024709563702344894,
						-0.07239001989364624,
						0.06958789378404617
					],
					[
						0.12218620628118515,
						-0.07085156440734863,
						-0.23194283246994019,
						-0.0032515875063836575,
						0.060532670468091965
					],
					[
						0.1901109516620636,
						0.02088049240410328,
						0.09750797599554062,
						0.03964957594871521,
						-0.3541261851787567
					],
					[
						0.15296879410743713,
						0.4336671829223633,
						0.15010114014148712,
						0.14151951670646667,
						-0.059533435851335526
					]
				],
				[
					[
						0.045334890484809875,
						-0.22087067365646362,
						0.030525870621204376,
						0.09034083783626556,
						-0.27642661333084106
					],
					[
						-0.06629806011915207,
						-0.13570228219032288,
						0.09064947813749313,
						0.1291646510362625,
						0.13649871945381165
					],
					[
						-0.08481187373399734,
						-0.0972287729382515,
						0.12010981142520905,
						0.20471234619617462,
						0.06612782180309296
					],
					[
						-0.09537191689014435,
						-0.20306313037872314,
						-0.2154236137866974,
						-0.05248618498444557,
						-0.13576552271842957
					],
					[
						-0.16200780868530273,
						-0.08775932341814041,
						0.08158870041370392,
						0.20836901664733887,
						-0.001999731408432126
					]
				],
				[
					[
						-0.04895767569541931,
						-0.1009993851184845,
						-0.3059450387954712,
						-0.0831504762172699,
						0.23445691168308258
					],
					[
						0.17404229938983917,
						-0.15639103949069977,
						-0.13848426938056946,
						-0.08294045180082321,
						0.10462493449449539
					],
					[
						-0.015051698312163353,
						0.3470383286476135,
						-0.3122255206108093,
						-0.15155942738056183,
						0.02320726402103901
					],
					[
						-0.3292561173439026,
						0.08433755487203598,
						0.16854281723499298,
						-0.1044306829571724,
						-0.3020292818546295
					],
					[
						-0.012641715817153454,
						0.022555047646164894,
						0.3018778860569,
						0.18511395156383514,
						0.004265345633029938
					]
				],
				[
					[
						0.04993787407875061,
						0.11969343572854996,
						-0.11692404747009277,
						0.04791701212525368,
						-0.00627275463193655
					],
					[
						0.1046859622001648,
						-0.06448463350534439,
						0.09232796728610992,
						0.26129865646362305,
						0.07850983738899231
					],
					[
						0.32260793447494507,
						0.09834494441747665,
						0.1081160232424736,
						0.3636738359928131,
						0.11986236274242401
					],
					[
						-0.050988078117370605,
						-0.29535725712776184,
						-0.3114633858203888,
						0.032914433628320694,
						0.09969782829284668
					],
					[
						-0.21066632866859436,
						0.19775769114494324,
						-0.12131534516811371,
						-0.511595606803894,
						-0.20224764943122864
					]
				]
			],
			[
				[
					[
						0.09622593224048615,
						0.16338752210140228,
						0.018207497894763947,
						-0.18603843450546265,
						0.0711284950375557
					],
					[
						0.1371038556098938,
						-0.10829325765371323,
						0.10262445360422134,
						0.08425305038690567,
						-0.018889786675572395
					],
					[
						0.020479325205087662,
						0.12471712380647659,
						0.035003554075956345,
						-0.226645827293396,
						-0.367276668548584
					],
					[
						-0.02304467372596264,
						0.09111548215150833,
						-0.21678389608860016,
						-0.07524773478507996,
						0.014607945457100868
					],
					[
						0.28875279426574707,
						0.29894477128982544,
						0.0811489000916481,
						-0.04723135009407997,
						-0.08491687476634979
					]
				],
				[
					[
						0.0893944725394249,
						0.17292505502700806,
						0.21720483899116516,
						-0.010491016320884228,
						-0.18807359039783478
					],
					[
						0.02366849221289158,
						0.2875402867794037,
						0.05155304819345474,
						-0.0894651785492897,
						-0.35083699226379395
					],
					[
						0.06822708994150162,
						0.14995363354682922,
						-0.31200075149536133,
						-0.26777905225753784,
						-0.03361903876066208
					],
					[
						0.04123741760849953,
						0.13250716030597687,
						0.06810266524553299,
						-0.2914668321609497,
						-0.4105696678161621
					],
					[
						0.20056810975074768,
						-0.026370646432042122,
						-0.24044263362884521,
						0.041291069239377975,
						-0.006460988894104958
					]
				],
				[
					[
						0.03424832969903946,
						0.04348549246788025,
						-0.12666422128677368,
						-0.11470411717891693,
						-0.09298862516880035
					],
					[
						0.030619364231824875,
						-0.1028384193778038,
						-0.16404011845588684,
						-0.3506942093372345,
						-0.43099507689476013
					],
					[
						0.13794256746768951,
						-0.3091520369052887,
						-0.0714511126279831,
						0.00622310396283865,
						0.23082959651947021
					],
					[
						0.2137002795934677,
						0.18411636352539062,
						0.45179492235183716,
						0.32547932863235474,
						-0.10508869588375092
					],
					[
						0.1830229014158249,
						0.2735055088996887,
						0.12741641700267792,
						-0.5193401575088501,
						-0.09375574439764023
					]
				],
				[
					[
						0.03296548128128052,
						-0.016607552766799927,
						-0.15173417329788208,
						-0.12355079501867294,
						-0.15965615212917328
					],
					[
						0.22056522965431213,
						0.28602102398872375,
						0.2693749964237213,
						0.23037444055080414,
						0.14573466777801514
					],
					[
						0.13874143362045288,
						0.1905921995639801,
						0.21337400376796722,
						0.5152218341827393,
						0.17619852721691132
					],
					[
						0.16256389021873474,
						0.21807678043842316,
						-0.11363950371742249,
						-0.15233108401298523,
						-0.21116697788238525
					],
					[
						0.36880728602409363,
						-0.09455130994319916,
						-0.043622542172670364,
						-0.2785243093967438,
						-0.13648533821105957
					]
				],
				[
					[
						-0.031355809420347214,
						-0.08700887113809586,
						-0.024478938430547714,
						0.07072506844997406,
						0.39148658514022827
					],
					[
						0.020190205425024033,
						0.17909196019172668,
						0.12916864454746246,
						-0.30350977182388306,
						-0.233956441283226
					],
					[
						0.12077527493238449,
